<?xml version="1.0"?>
<opencv_storage>
<cascade>
  <stageType>BOOST</stageType>
  <featureType>LBP</featureType>
  <height>48</height>
  <width>48</width>
  <stageParams>
    <boostType>GAB</boostType>
    <minHitRate>9.9500000476837158e-01</minHitRate>
    <maxFalseAlarm>5.0000000000000000e-01</maxFalseAlarm>
    <weightTrimRate>9.4999999999999996e-01</weightTrimRate>
    <maxDepth>1</maxDepth>
    <maxWeakCount>100</maxWeakCount></stageParams>
  <featureParams>
    <maxCatCount>256</maxCatCount>
    <featSize>1</featSize></featureParams>
  <stageNum>4</stageNum>
  <stages>
    <!-- stage 0 -->
    <_>
      <maxWeakCount>1</maxWeakCount>
      <stageThreshold>9.8893803358078003e-01</stageThreshold>
      <weakClassifiers>
        <_>
          <internalNodes>
            0 -1 3 -78775329 -619724459 285696223 -49031911 -2087984133
            -5004989 -1600402721 -3147558</internalNodes>
          <leafValues>
            -9.9776786565780640e-01 9.8893803358078003e-01</leafValues></_></weakClassifiers></_>
    <!-- stage 1 -->
    <_>
      <maxWeakCount>1</maxWeakCount>
      <stageThreshold>9.7582417726516724e-01</stageThreshold>
      <weakClassifiers>
        <_>
          <internalNodes>
            0 -1 1 -234882049 -539144101 -720776109 -686714555
            -2001041190 -351598424 -611593813 -537929217</internalNodes>
          <leafValues>
            -9.9775278568267822e-01 9.7582417726516724e-01</leafValues></_></weakClassifiers></_>
    <!-- stage 2 -->
    <_>
      <maxWeakCount>2</maxWeakCount>
      <stageThreshold>-2.0177412778139114e-02</stageThreshold>
      <weakClassifiers>
        <_>
          <internalNodes>
            0 -1 0 -108068865 -685770483 -704521793 -48770873
            -1907711585 -108490084 -298845185 -4198929</internalNodes>
          <leafValues>
            -9.8663699626922607e-01 9.8226165771484375e-01</leafValues></_>
        <_>
          <internalNodes>
            0 -1 2 -612892673 -648965845 -1818519041 -4233345
            -1677723393 -91274065 1553144575 -67108885</internalNodes>
          <leafValues>
            -9.9356383085250854e-01 9.6645957231521606e-01</leafValues></_></weakClassifiers></_>
    <!-- stage 3 -->
    <_>
      <maxWeakCount>2</maxWeakCount>
      <stageThreshold>-1.7115667462348938e-02</stageThreshold>
      <weakClassifiers>
        <_>
          <internalNodes>
            0 -1 5 -780149249 -780807803 1163416571 -10487817 -12193537
            -1191149415 -68433413 -5248261</internalNodes>
          <leafValues>
            -9.8208284378051758e-01 9.6692395210266113e-01</leafValues></_>
        <_>
          <internalNodes>
            0 -1 4 -545261569 -578318105 -1719561449 -2117219
            -1588601089 -104337253 -373031937 -397</internalNodes>
          <leafValues>
            -9.8139888048171997e-01 9.6496719121932983e-01</leafValues></_></weakClassifiers></_></stages>
  <features>
    <_>
      <rect>
        6 2 8 5</rect></_>
    <_>
      <rect>
        6 15 5 8</rect></_>
    <_>
      <rect>
        6 16 10 7</rect></_>
    <_>
      <rect>
        10 34 9 4</rect></_>
    <_>
      <rect>
        21 10 5 6</rect></_>
    <_>
      <rect>
        24 22 6 7</rect></_></features></cascade>
</opencv_storage>
